svm_type nu_svc
kernel_type rbf
gamma 0.15
nr_class 3
total_sv 3
rho 0 0 0
label -1 0 1
probA 0.693147 0.693147 0.693147
probB 2.3919e-16 2.3919e-16 2.3919e-16
nr_sv 1 1 1
SV
1.271841229530254 1.023074688452972 1:0.15625 2:-0.085938 3:-0.023438 4:-0.015625 5:-0.117188 6:-0.09375 7:-0.007812 8:-0.21875 9:0.226562 10:0.117188 11:-0.0625 12:0 13:0.023438 14:0.0625 15:-0.023438 16:-0.109375 17:-0.5 18:0.523438 19:-0.039062 20:-0.03125 21:-0.078125 22:-0.046875 23:-0.054688 24:0.101562 25:-0.164062 26:0.851562 27:-0.070312 28:0 29:-0.132812 30:-0.210938 31:-0.351562 32:0.28125 33:-0.296875 34:0.195312 35:-0.1875 36:-0.109375 37:-0.148438 38:-0.171875 39:-0.609375 40:-0.585938 41:0.15625 42:0.828125 43:0.15625 44:0.03125 45:0.070312 46:0.09375 47:0.078125 48:0.398438 49:0.585938 50:0.992188 51:0.109375 52:0.023438 53:0.054688 54:0.117188 55:-0.054688 56:-0.398438 57:0.03125 58:0.453125 59:0.039062 60:-0.023438 61:0.015625 62:0 63:-0.046875 64:-0.296875 65:0.570312 66:0.515625 67:0.070312 68:-0.015625 69:-0.070312 70:-0.070312 71:0.078125 72:0.210938 73:0.101562 74:0.398438 75:-0.046875 76:-0.085938 77:-0.085938 78:-0.164062 79:-0.148438 80:0.257812 81:0.367188 82:-0.007812 83:-0.015625 84:0.023438 85:0 86:0.125 87:0.125 88:0.023438 89:-0.1875 90:0.023438 91:-0.054688 92:0.015625 93:-0.007812 94:0.070312 95:0.015625 96:-0.171875 97:0.21875 98:0.171875 99:-0.03125 100:-0.03125 101:-0.03125 102:0.054688 103:-0.0625 104:-0.28125 105:-0.507812 106:-0.78125 107:-0.179688 108:-0.0625 109:-0.039062 110:0 111:0.03125 112:-0.148438 113:-0.5625 114:-0.328125 115:-0.1875 116:-0.0625 117:-0.101562 118:-0.203125 119:-0.125 120:-0.226562 121:0.34375 122:0.320312 123:0.054688 124:0.015625 125:-0.078125 126:-0.554688 127:-0.070312 128:-0.359375 129:-0.101562 130:0.6875 131:0.078125 132:0.039062 133:0.054688 134:-0.304688 135:0.046875 136:0.664062 137:-0.140625 138:0.195312 139:0.078125 140:0.023438 141:0.03125 142:-0.21875 143:-0.171875 144:-0.03125 
-1.271841229530254 1.061932652906125 1:0.007812 2:-0.007812 3:0.007812 4:-0.023438 5:0.007812 6:-0.046875 7:-0.007812 8:0 9:-0.007812 10:0.007812 11:0 12:0.039062 13:-0.164062 14:-0.078125 15:-0.03125 16:-0.015625 17:-0.015625 18:-0.015625 19:-0.039062 20:-0.179688 21:-0.109375 22:0 23:-0.015625 24:-0.007812 25:-0.015625 26:0.015625 27:0 28:0.039062 29:0.09375 30:0.03125 31:-0.007812 32:-0.007812 33:-0.007812 34:-0.039062 35:-0.007812 36:-0.039062 37:-0.023438 38:-0.023438 39:-0.015625 40:-0.007812 41:-0.007812 42:-0.023438 43:-0.03125 44:-0.007812 45:0.007812 46:0.078125 47:-0.007812 48:0.015625 49:0 50:0.007812 51:-0.007812 52:-0.023438 53:-0.007812 54:0.046875 55:-0.007812 56:0.007812 57:0.007812 58:-0.007812 59:0 60:0 61:-0.203125 62:-0.023438 63:-0.007812 64:-0.007812 65:0 66:-0.007812 67:-0.023438 68:0 69:-0.070312 70:-0.039062 71:0.015625 72:0.007812 73:0.007812 74:-0.015625 75:0 76:0.015625 77:0.179688 78:0.085938 79:-0.007812 80:-0.015625 81:0 82:-0.007812 83:-0.015625 84:0.046875 85:-0.101562 86:-0.070312 87:-0.015625 88:0 89:0.015625 90:0.023438 91:0.023438 92:0.070312 93:-0.015625 94:0 95:0 96:0 97:-0.015625 98:0 99:0.023438 100:0 101:-0.03125 102:-0.007812 103:0 104:-0.015625 105:-0.007812 106:-0.023438 107:-0.039062 108:-0.039062 109:0.0625 110:0 111:0 112:-0.015625 113:0 114:-0.007812 115:0.007812 116:0.070312 117:0 118:-0.03125 119:0 120:0 121:-0.007812 122:-0.023438 123:-0.03125 124:-0.039062 125:-0.015625 126:-0.0625 127:-0.03125 128:-0.015625 129:0 130:-0.007812 131:0.007812 132:0.015625 133:0.015625 134:-0.039062 135:-0.023438 136:0 137:0 138:0 139:0.007812 140:0.09375 141:-0.078125 142:-0.054688 143:-0.015625 144:-0.007812 
-1.023074688452972 -1.061932652906125 1:0.007812 2:-0.015625 3:0.007812 4:-0.015625 5:-0.296875 6:-0.140625 7:-0.007812 8:0.179688 9:-0.023438 10:-0.039062 11:-0.046875 12:0.015625 13:0.125 14:-0.03125 15:-0.03125 16:-0.046875 17:-0.015625 18:-0.015625 19:-0.007812 20:-0.03125 21:0.140625 22:0.117188 23:0.007812 24:0.007812 25:-0.03125 26:-0.023438 27:-0.070312 28:-0.132812 29:-0.140625 30:-0.195312 31:-0.046875 32:-0.015625 33:0.023438 34:-0.015625 35:0 36:0.164062 37:0.820312 38:-0.429688 39:0.007812 40:0.015625 41:0.015625 42:-0.007812 43:-0.070312 44:-0.46875 45:0.859375 46:-0.8125 47:-0.179688 48:-0.0625 49:0.210938 50:0.164062 51:0.265625 52:0.34375 53:-0.101562 54:0.695312 55:0.679688 56:0.359375 57:-0.125 58:-0.09375 59:-0.117188 60:-0.40625 61:0.992188 62:-0.40625 63:-0.296875 64:-0.203125 65:0.203125 66:0.140625 67:0.226562 68:-0.21875 69:-0.398438 70:0.523438 71:0.039062 72:0.03125 73:-0.320312 74:-0.289062 75:-0.492188 76:-0.304688 77:-0.40625 78:-0.40625 79:-0.695312 80:-0.390625 81:-0.226562 82:-0.289062 83:-0.554688 84:-0.773438 85:0.445312 86:-0.734375 87:-0.132812 88:-0.171875 89:0.039062 90:0.023438 91:0.007812 92:0.0625 93:-0.617188 94:-0.070312 95:0.039062 96:0.117188 97:-0.039062 98:-0.101562 99:-0.21875 100:0.101562 101:0.726562 102:-0.210938 103:-0.023438 104:-0.117188 105:-0.460938 106:-0.398438 107:-0.6875 108:-0.804688 109:-0.5625 110:-0.734375 111:-0.992188 112:-0.703125 113:0.085938 114:0.015625 115:0.023438 116:-0.140625 117:0.023438 118:-0.398438 119:0.039062 120:-0.023438 121:0.03125 122:0.070312 123:0.179688 124:0.085938 125:0.992188 126:-0.414062 127:-0.265625 128:0.03125 129:-0.054688 130:-0.078125 131:-0.109375 132:-0.171875 133:-0.671875 134:-0.851562 135:-0.390625 136:-0.085938 137:0.078125 138:0.03125 139:0.03125 140:-0.171875 141:0.40625 142:-0.507812 143:-0.453125 144:-0.234375 
