svm_type nu_svc
kernel_type rbf
gamma 0.15
nr_class 2
total_sv 10
rho -0.900329
label 1 -1
probA -2.79116
probB -0.52058
nr_sv 7 3
SV
0.2631616451964173 1:0.0112138 2:-0.023438 3:-0.007812 4:0.007812 5:-0.023438 6:-0.039062 7:-0.03125 8:-0.03125 9:-0.023438 10:0.0696667 11:0.007812 12:0.007812 13:-0.007812 14:0 15:0.09375 16:-0.03125 17:0.007812 18:0.007812 19:0.128306 20:0 21:0.015625 22:0.023438 23:0.03125 24:0.054688 25:-0.054688 26:-0.015625 27:-0.007812 28:0.186395 29:0.007812 30:0.007812 31:0.015625 32:-0.109375 33:-0.132812 34:0 35:0.203125 36:0.109375 37:0.244407 38:0.820312 39:0.609375 40:0.421875 41:0.390625 42:0.523438 43:0.75 44:0.21875 45:0.882812 46:0.302071 47:0.992188 48:0.054688 49:-0.078125 50:0.445312 51:0.335938 52:-0.15625 53:0.414062 54:-0.484375 55:0.360284 56:-0.367188 57:-0.171875 58:-0.015625 59:-0.257812 60:-0.28125 61:-0.078125 62:-0.429688 63:0.507812 64:0.418292 65:-0.203125 66:0.007812 67:-0.085938 68:-0.039062 69:0.25 70:0.195312 71:-0.296875 72:-0.15625 73:0.476198 74:-0.554688 75:-0.257812 76:-0.242188 77:-0.289062 78:-0.46875 79:0.148438 80:-0.320312 81:-0.390625 82:0.533843 83:-0.632812 84:0 85:-0.078125 86:0.054688 87:-0.046875 88:0.421875 89:0.992188 90:-0.6875 91:0.593285 92:-0.390625 93:-0.0625 94:0.007812 95:-0.171875 96:-0.085938 97:-0.109375 98:0.65625 99:-0.289062 100:0.651515 101:0.054688 102:0.164062 103:0.101562 104:0.507812 105:0.5625 106:0.234375 107:0.8125 108:0.992188 109:0.709602 110:-0.25 111:-0.101562 112:-0.085938 113:-0.101562 114:0.140625 115:-0.039062 116:-0.984375 117:-0.523438 118:0.768099 119:0.320312 120:-0.046875 121:-0.203125 122:0.585938 123:0.390625 124:0.53125 125:0.242188 126:0.085938 127:0.825692 128:0.125 129:-0.15625 130:-0.0625 131:-0.359375 132:-0.21875 133:-0.40625 134:0.46875 135:0.0625 136:0.884271 137:0.5625 138:0.164062 139:0.078125 140:0.039062 141:0.140625 142:0.140625 143:-0.59375 144:0.210938 145:0.941802 146:0.398438 147:0.085938 148:0.101562 149:0.007812 150:-0.054688 151:-0.195312 152:-0.101562 153:0.203125 154:1 155:-0.046875 156:0 157:0.015625 158:-0.195312 159:-0.351562 160:0.015625 161:-0.0625 162:0.195312 
0.6690507036575118 1:0.0292144 2:-0.023438 3:-0.023438 4:-0.03125 5:-0.085938 6:0.0625 7:-0.109375 8:-0.046875 9:-0.023438 10:0.0583317 11:-0.039062 12:-0.03125 13:-0.015625 14:-0.023438 15:0.023438 16:-0.179688 17:0.039062 18:0.023438 19:0.116952 20:-0.320312 21:-0.140625 22:-0.078125 23:-0.015625 24:0.109375 25:-0.015625 26:0.046875 27:0.015625 28:0.176008 29:-0.179688 30:-0.085938 31:-0.125 32:0.0625 33:-0.132812 34:-0.375 35:0.664062 36:-0.28125 37:0.23565 38:0.023438 39:-0.125 40:0.046875 41:-0.4375 42:0.195312 43:0.226562 44:0.023438 45:-0.023438 46:0.293883 47:-0.546875 48:0.09375 49:0.0625 50:-0.085938 51:-0.132812 52:0.742188 53:0.945312 54:-0.070312 55:0.354048 56:0.28125 57:-0.140625 58:-0.007812 59:-0.046875 60:0.125 61:-0.023438 62:-0.84375 63:-0.132812 64:0.412432 65:-0.007812 66:0.007812 67:-0.101562 68:0.328125 69:0.3125 70:-0.164062 71:0.054688 72:-0.242188 73:0.472273 74:-0.25 75:0.109375 76:0.070312 77:0.085938 78:0.140625 79:0.351562 80:0.09375 81:0.625 82:0.531335 83:-0.53125 84:-0.007812 85:0.015625 86:0.039062 87:0.15625 88:0.023438 89:-0.101562 90:-0.109375 91:0.59094 92:-0.59375 93:-0.015625 94:0.046875 95:0.460938 96:0.414062 97:0.007812 98:0.773438 99:-0.023438 100:0.649073 101:-0.140625 102:-0.109375 103:-0.070312 104:-0.382812 105:-0.257812 106:-0.039062 107:-0.335938 108:-0.226562 109:0.70726 110:-0.0625 111:0 112:0.054688 113:-0.289062 114:-0.234375 115:-0.070312 116:0.351562 117:0.351562 118:0.765599 119:-0.523438 120:-0.15625 121:0.03125 122:-0.1875 123:-0.289062 124:-0.140625 125:-0.632812 126:-0.796875 127:0.82432 128:-0.335938 129:-0.242188 130:-0.109375 131:-0.429688 132:-0.0625 133:-0.007812 134:-0.070312 135:-0.28125 136:0.882953 137:0.046875 138:0.101562 139:0.039062 140:0.015625 141:0.15625 142:0.210938 143:-0.085938 144:0.03125 145:0.941187 146:-0.101562 147:-0.015625 148:-0.015625 149:-0.429688 150:-0.445312 151:-0.320312 152:-0.125 153:-0.078125 154:1 155:0.359375 156:0.164062 157:0.273438 158:0.296875 159:0.328125 160:-0.34375 161:0.453125 162:0.570312 
0.2486434749737091 1:0.0232457 2:0 3:-0.070312 4:-0.0625 5:-0.015625 6:0.101562 7:0.15625 8:0.007812 9:-0.023438 10:0.0819 11:0.007812 12:0.070312 13:0.039062 14:0 15:0.054688 16:0.25 17:0.054688 18:0.015625 19:0.140831 20:0 21:-0.015625 22:0.007812 23:-0.007812 24:-0.171875 25:0.078125 26:0 27:-0.015625 28:0.199612 29:0.03125 30:0.03125 31:-0.039062 32:0.070312 33:0.0625 34:0.039062 35:0.03125 36:0.023438 37:0.259599 38:0.046875 39:-0.078125 40:-0.03125 41:0 42:-0.164062 43:-0.023438 44:0.085938 45:0.0625 46:0.318959 47:0.632812 48:0.453125 49:0.289062 50:-0.21875 51:-0.007812 52:-0.09375 53:-0.570312 54:0.390625 55:0.347971 56:0.25 57:-0.226562 58:-0.125 59:0.523438 60:-0.421875 61:-0.273438 62:0.859375 63:0.09375 64:0.407376 65:0.15625 66:-0.0625 67:-0.234375 68:0.765625 69:0.242188 70:0.023438 71:-0.8125 72:0.375 73:0.46663 74:0.328125 75:-0.289062 76:-0.265625 77:-0.539062 78:-0.421875 79:-0.476562 80:-0.671875 81:-1 82:0.525037 83:-0.273438 84:-0.007812 85:-0.007812 86:0.070312 87:0.085938 88:-0.039062 89:-0.382812 90:0.078125 91:0.585143 92:-0.28125 93:0.046875 94:-0.023438 95:0.070312 96:-0.117188 97:-0.125 98:0.789062 99:0.117188 100:0.643972 101:-0.179688 102:-0.085938 103:-0.015625 104:-0.195312 105:-0.140625 106:-0.546875 107:-1 108:-0.539062 109:0.702326 110:0.6875 111:0.445312 112:0.367188 113:0.28125 114:0.3125 115:0.328125 116:0.398438 117:0.765625 118:0.762088 119:0.40625 120:0.046875 121:0.03125 122:0.039062 123:0.007812 124:-0.125 125:-0.21875 126:0.203125 127:0.820829 128:0.273438 129:-0.023438 130:-0.101562 131:-0.242188 132:-0.296875 133:-0.414062 134:-0.953125 135:-0.335938 136:0.88 137:0.03125 138:0 139:-0.0625 140:0 141:0.03125 142:0.078125 143:-0.789062 144:-0.265625 145:0.940425 146:-0.210938 147:-0.046875 148:-0.078125 149:-0.203125 150:-0.171875 151:0.242188 152:0.054688 153:0.265625 154:1 155:0.015625 156:0.085938 157:0.09375 158:0.585938 159:0.539062 160:0.007812 161:-0.53125 162:-0.070312 
0.5468239825024593 1:0.0203445 2:-0.015625 3:0.007812 4:-0.007812 5:-0.039062 6:-0.117188 7:-0.109375 8:-0.039062 9:-0.054688 10:0.079534 11:-0.046875 12:-0.046875 13:0.007812 14:-0.078125 15:-0.109375 16:0.046875 17:-0.140625 18:-0.140625 19:0.138354 20:-0.117188 21:0.023438 22:0.015625 23:0 24:-0.101562 25:-0.101562 26:-0.078125 27:-0.039062 28:0.197734 29:-0.132812 30:-0.0625 31:-0.0625 32:-0.101562 33:0.09375 34:-0.234375 35:-0.40625 36:-0.367188 37:0.257102 38:-0.148438 39:-0.070312 40:-0.171875 41:-0.6875 42:-0.796875 43:-0.421875 44:-0.132812 45:-0.703125 46:0.316877 47:-0.421875 48:-0.210938 49:-0.046875 50:-0.390625 51:-0.28125 52:-0.335938 53:-0.210938 54:0.398438 55:0.377031 56:0.484375 57:0.414062 58:0.320312 59:0.382812 60:0.632812 61:0.578125 62:0.84375 63:0.234375 64:0.436265 65:0.304688 66:-0.023438 67:-0.015625 68:0.523438 69:0.335938 70:0.25 71:-0.40625 72:0.125 73:0.466465 74:-0.179688 75:-0.070312 76:-0.070312 77:-0.015625 78:-0.226562 79:-0.007812 80:-0.304688 81:-0.203125 82:0.525929 83:-0.101562 84:-0.039062 85:-0.0625 86:-0.414062 87:-0.484375 88:-0.40625 89:0.015625 90:-0.210938 91:0.585553 92:0.070312 93:0.046875 94:0.023438 95:0.164062 96:0.0625 97:0 98:-0.25 99:0.015625 100:0.645435 101:-0.085938 102:0.117188 103:0.023438 104:-0.125 105:-0.195312 106:-0.304688 107:-0.578125 108:-0.265625 109:0.706196 110:0.015625 111:-0.101562 112:-0.023438 113:-0.1875 114:-0.132812 115:-0.179688 116:-0.21875 117:-0.15625 118:0.76496 119:0.148438 120:-0.03125 121:-0.023438 122:-0.195312 123:-0.148438 124:-0.257812 125:0.03125 126:0.148438 127:0.823406 128:0.359375 129:0.164062 130:0.078125 131:0.1875 132:0.203125 133:-0.289062 134:-0.257812 135:0.25 136:0.882076 137:0.0625 138:-0.070312 139:0.03125 140:0.015625 141:0.109375 142:0.109375 143:-0.117188 144:0.289062 145:0.940524 146:-0.578125 147:-0.085938 148:-0.09375 149:-0.015625 150:-0.171875 151:-0.25 152:-0.554688 153:-0.15625 154:1 155:0.234375 156:0.148438 157:0.078125 158:-0.046875 159:-0.070312 160:-0.101562 161:-0.03125 162:0.25 
0.2518108025742983 1:0.0229146 2:0.164062 3:-0.046875 4:-0.023438 5:0.03125 6:0.101562 7:-0.007812 8:0 9:0.023438 10:0.0823532 11:-0.21875 12:-0.054688 13:-0.03125 14:0.054688 15:-0.453125 16:-0.109375 17:-0.3125 18:0.0625 19:0.141622 20:0.109375 21:-0.140625 22:-0.078125 23:-0.328125 24:-0.265625 25:-0.28125 26:-0.328125 27:-0.171875 28:0.200461 29:0.273438 30:-0.046875 31:-0.015625 32:-0.1875 33:-0.179688 34:-0.546875 35:-0.367188 36:-0.367188 37:0.259322 38:0.203125 39:0.117188 40:0.0625 41:0.164062 42:0.1875 43:0.289062 44:-0.132812 45:0.289062 46:0.318954 47:-0.15625 48:0.007812 49:0.015625 50:-0.257812 51:0.125 52:-0.15625 53:-0.257812 54:-0.015625 55:0.377645 56:-0.75 57:-0.28125 58:-0.171875 59:-0.625 60:-0.453125 61:-0.539062 62:-1 63:-0.1875 64:0.407347 65:-0.554688 66:-0.6875 67:-0.460938 68:-0.726562 69:-0.664062 70:-0.59375 71:0.390625 72:0.234375 73:0.467105 74:0.46875 75:0.164062 76:0.078125 77:-0.28125 78:-0.1875 79:0.0625 80:0.148438 81:0.0625 82:0.525749 83:-0.570312 84:-0.453125 85:-0.195312 86:-0.054688 87:0 88:-0.257812 89:0.289062 90:0.234375 91:0.584822 92:-0.554688 93:-0.085938 94:-0.023438 95:-0.242188 96:-0.28125 97:-0.226562 98:-0.5625 99:-0.5625 100:0.643812 101:0.914062 102:0.125 103:0.109375 104:0.4375 105:0.335938 106:-0.007812 107:-0.429688 108:0.257812 109:0.703845 110:-0.242188 111:-0.359375 112:-0.265625 113:-0.164062 114:-0.109375 115:-0.3125 116:0.09375 117:-0.453125 118:0.763063 119:0.03125 120:0.054688 121:-0.070312 122:-0.09375 123:-0.273438 124:0.054688 125:0.851562 126:-0.5 127:0.8229 128:-0.59375 129:-0.195312 130:-0.140625 131:-0.328125 132:-0.203125 133:-0.703125 134:-0.664062 135:-0.421875 136:0.882514 137:-0.140625 138:-0.03125 139:-0.046875 140:-0.140625 141:0.046875 142:0.195312 143:-0.367188 144:-0.171875 145:0.941267 146:-0.484375 147:-0.226562 148:-0.09375 149:0.0625 150:0.015625 151:0.054688 152:-0.101562 153:-0.273438 154:1 155:0.148438 156:0.046875 157:-0.015625 158:0.78125 159:0.921875 160:0.132812 161:-0.046875 162:-0.101562 
0.3804194458847451 1:0.0288492 2:-0.015625 3:-0.007812 4:-0.046875 5:-0.046875 6:0.164062 7:0.007812 8:-0.007812 9:-0.054688 10:0.0870583 11:0.015625 12:0.015625 13:-0.023438 14:0.007812 15:0.109375 16:0.007812 17:0.007812 18:0.007812 19:0.116127 20:0.054688 21:0.046875 22:0.039062 23:0.046875 24:0.015625 25:0.007812 26:0.023438 27:0.03125 28:0.176052 29:-0.0625 30:-0.03125 31:0 32:0.148438 33:0.078125 34:0.03125 35:0.304688 36:-0.015625 37:0.234381 38:0.242188 39:0.25 40:0.148438 41:0.023438 42:-0.289062 43:-0.078125 44:-0.5 45:-0.578125 46:0.294637 47:0.15625 48:0.195312 49:0.078125 50:0.476562 51:0.703125 52:0.867188 53:0.882812 54:0.414062 55:0.35421 56:0.382812 57:0.179688 58:0.078125 59:0.078125 60:-0.023438 61:0.453125 62:0.335938 63:0.65625 64:0.413251 65:-0.320312 66:-0.140625 67:-0.148438 68:-0.015625 69:0 70:-0.070312 71:-0.242188 72:-0.078125 73:0.471738 74:-0.265625 75:-0.132812 76:-0.117188 77:0.179688 78:0.039062 79:-0.328125 80:-0.3125 81:-0.648438 82:0.53013 83:0.15625 84:0.023438 85:0.007812 86:-0.085938 87:-0.15625 88:-0.164062 89:-0.382812 90:-0.070312 91:0.589417 92:-0.171875 93:-0.054688 94:-0.125 95:-0.109375 96:-0.179688 97:-0.265625 98:-0.179688 99:-0.40625 100:0.648056 101:-0.375 102:-0.507812 103:-0.53125 104:-0.15625 105:-0.023438 106:-0.453125 107:-0.5625 108:-0.914062 109:0.707018 110:-0.007812 111:0.039062 112:0.101562 113:-0.523438 114:-0.453125 115:0.039062 116:-0.039062 117:-0.21875 118:0.765129 119:-0.046875 120:-0.109375 121:0 122:-0.28125 123:0.078125 124:-0.289062 125:-0.28125 126:-0.265625 127:0.8237 128:0.3125 129:0.179688 130:0.101562 131:-0.320312 132:-0.007812 133:-0.15625 134:-0.945312 135:0.234375 136:0.882038 137:0.164062 138:0 139:-0.078125 140:-0.117188 141:-0.125 142:-0.15625 143:-0.523438 144:0.007812 145:0.941463 146:0.523438 147:0.265625 148:0.210938 149:0.257812 150:0.15625 151:0.203125 152:0.476562 153:0.085938 154:1 155:-0.125 156:0.078125 157:0.117188 158:-0.0625 159:-0.03125 160:-0.1875 161:-0.515625 162:-1 
0.2129983235963513 1:0.0203478 2:0 3:0 4:-0.007812 5:-0.015625 6:0.09375 7:0.023438 8:-0.054688 9:0 10:0.0793015 11:-0.039062 12:0.023438 13:0.015625 14:-0.007812 15:-0.03125 16:-0.15625 17:-0.101562 18:-0.078125 19:0.139372 20:-0.203125 21:-0.109375 22:-0.023438 23:-0.179688 24:0.03125 25:-0.109375 26:-0.203125 27:-0.21875 28:0.198878 29:-0.859375 30:0.140625 31:0.023438 32:-0.0625 33:-0.585938 34:-0.460938 35:-1 36:-1 37:0.259258 38:-0.453125 39:-0.382812 40:-0.195312 41:-0.164062 42:-0.023438 43:0.59375 44:0.992188 45:0.835938 46:0.318407 47:-0.328125 48:-0.078125 49:-0.109375 50:-0.039062 51:-0.125 52:-0.421875 53:-1 54:-0.132812 55:0.378676 56:-0.0625 57:0.0625 58:0.0625 59:0.039062 60:-0.203125 61:0.226562 62:0.6875 63:0.40625 64:0.408719 65:-0.140625 66:-0.0625 67:0 68:0.0625 69:-0.054688 70:0.046875 71:0.484375 72:0.125 73:0.469067 74:0.046875 75:-0.070312 76:-0.070312 77:-0.40625 78:-0.320312 79:-0.171875 80:-0.21875 81:-0.265625 82:0.528322 83:-0.90625 84:-0.148438 85:-0.109375 86:-0.140625 87:-0.265625 88:-0.382812 89:-0.265625 90:-0.21875 91:0.587058 92:-0.703125 93:-0.101562 94:-0.078125 95:-0.195312 96:-0.304688 97:-0.257812 98:-0.40625 99:-0.5625 100:0.645752 101:-0.132812 102:0.0625 103:0.03125 104:-0.085938 105:-0.046875 106:0.140625 107:0.523438 108:0.125 109:0.704416 110:-1 111:-0.171875 112:-0.125 113:0.054688 114:0.101562 115:0.007812 116:0.039062 117:-0.21875 118:0.763256 119:-0.320312 120:0.007812 121:-0.023438 122:0.609375 123:0.679688 124:0.257812 125:-0.648438 126:-0.320312 127:0.822526 128:-0.234375 129:-0.179688 130:-0.210938 131:-0.070312 132:0.054688 133:-0.195312 134:-0.78125 135:-0.382812 136:0.882077 137:-0.570312 138:-0.03125 139:0 140:0.054688 141:-0.023438 142:-0.78125 143:-0.5625 144:-0.601562 145:0.941102 146:0.039062 147:0.0625 148:0.078125 149:0.148438 150:0.171875 151:0.210938 152:-0.34375 153:-0.125 154:1 155:0.070312 156:0.046875 157:0.132812 158:-0.125 159:-0.101562 160:0.304688 161:0.375 162:0.585938 
-1.223485673703629 1:0.0257532 2:0.007812 3:0.007812 4:0.007812 5:-0.023438 6:-0.085938 7:-0.078125 8:-0.007812 9:-0.007812 10:0.0850586 11:0 12:-0.015625 13:-0.015625 14:0.0625 15:0.171875 16:0.359375 17:0.03125 18:0.007812 19:0.143764 20:0 21:-0.007812 22:0.015625 23:0.007812 24:-0.148438 25:0.125 26:0.023438 27:0.015625 28:0.20359 29:-0.007812 30:0.007812 31:0.023438 32:0.007812 33:0.085938 34:0.046875 35:0.015625 36:0 37:0.232715 38:-0.015625 39:-0.0625 40:-0.0625 41:0.015625 42:0.117188 43:0.046875 44:-0.03125 45:-0.015625 46:0.291805 47:0 48:0.015625 49:0.007812 50:-0.03125 51:-0.109375 52:-0.117188 53:-0.015625 54:0 55:0.35081 56:-0.007812 57:-0.046875 58:-0.046875 59:-0.03125 60:-0.078125 61:-0.109375 62:-0.015625 63:0 64:0.410044 65:0 66:-0.015625 67:0.023438 68:0.054688 69:0.046875 70:-0.054688 71:-0.007812 72:-0.015625 73:0.469396 74:0 75:0 76:-0.015625 77:0.109375 78:-0.03125 79:-0.3125 80:0.023438 81:0.007812 82:0.52796 83:-0.015625 84:0.03125 85:0.054688 86:0 87:-0.054688 88:0.046875 89:-0.015625 90:-0.015625 91:0.587231 92:0.007812 93:0.015625 94:0.023438 95:0.007812 96:-0.015625 97:-0.085938 98:0 99:0 100:0.646888 101:0 102:-0.007812 103:-0.007812 104:-0.015625 105:-0.039062 106:-0.164062 107:-0.007812 108:-0.007812 109:0.705612 110:0.007812 111:0.007812 112:0 113:0.046875 114:0.179688 115:-0.25 116:0 117:0.007812 118:0.765586 119:0.007812 120:0.007812 121:0.007812 122:0.03125 123:0.023438 124:0.054688 125:0.023438 126:0.007812 127:0.824216 128:0 129:-0.023438 130:-0.007812 131:0 132:-0.007812 133:0.015625 134:-0.039062 135:-0.007812 136:0.883378 137:-0.007812 138:-0.03125 139:-0.023438 140:-0.015625 141:-0.109375 142:0.039062 143:-0.023438 144:-0.023438 145:0.941811 146:-0.007812 147:-0.007812 148:0 149:0.007812 150:0 151:-0.023438 152:0.007812 153:-0.007812 154:1 155:0.015625 156:0.03125 157:-0.023438 158:0 159:0.070312 160:-0.179688 161:0.078125 162:0.007812 
-0.6715997951879157 1:0.0192735 2:-0.007812 3:-0.007812 4:-0.015625 5:-0.070312 6:0.03125 7:-0.101562 8:0.015625 9:0 10:0.0785534 11:-0.015625 12:-0.046875 13:-0.046875 14:-0.023438 15:-0.070312 16:0.078125 17:-0.054688 18:-0.023438 19:0.137664 20:0.007812 21:0.046875 22:0.015625 23:0.007812 24:-0.0625 25:-0.078125 26:-0.03125 27:0 28:0.197195 29:0 30:-0.023438 31:-0.007812 32:0.023438 33:-0.03125 34:-0.195312 35:-0.023438 36:0 37:0.256693 38:0 39:0.0625 40:0.007812 41:0 42:0 43:0.015625 44:-0.007812 45:0 46:0.315768 47:0 48:0.023438 49:0.015625 50:-0.015625 51:0.171875 52:0.140625 53:0.015625 54:0.007812 55:0.375326 56:0.023438 57:0.007812 58:0.015625 59:0 60:-0.023438 61:0.132812 62:-0.023438 63:0 64:0.435011 65:-0.007812 66:-0.015625 67:0.007812 68:0 69:-0.023438 70:-0.375 71:0.007812 72:0.007812 73:0.493908 74:0 75:-0.015625 76:-0.015625 77:0 78:-0.132812 79:0 80:-0.007812 81:-0.007812 82:0.553291 83:-0.015625 84:-0.007812 85:0.023438 86:-0.046875 87:-0.140625 88:0.039062 89:-0.007812 90:0 91:0.612356 92:0.007812 93:0 94:0.007812 95:0.007812 96:0.046875 97:-0.085938 98:0.007812 99:-0.015625 100:0.671796 101:-0.015625 102:-0.054688 103:-0.015625 104:0 105:-0.242188 106:0.078125 107:-0.007812 108:-0.023438 109:0.731434 110:-0.023438 111:0.015625 112:-0.007812 113:-0.03125 114:0.148438 115:0.046875 116:-0.023438 117:-0.015625 118:0.79219 119:-0.007812 120:0.015625 121:-0.046875 122:-0.023438 123:-0.078125 124:-0.039062 125:-0.015625 126:-0.007812 127:0.822477 128:0.015625 129:0.109375 130:0.015625 131:0.023438 132:0.09375 133:0.015625 134:0 135:-0.015625 136:0.881187 137:0 138:0.054688 139:0.007812 140:-0.023438 141:0.054688 142:0.320312 143:0.046875 144:0 145:0.940924 146:0 147:-0.007812 148:-0.015625 149:-0.007812 150:0.03125 151:-0.078125 152:-0.015625 153:0.015625 154:1 155:0 156:0 157:0.046875 158:0.039062 159:-0.148438 160:-0.039062 161:-0.023438 162:-0.007812 
-0.6778229094939475 1:0.00360346 2:-0.007812 3:-0.078125 4:-0.039062 5:-0.03125 6:0.0625 7:0.132812 8:-0.007812 9:-0.007812 10:0.0620661 11:-0.007812 12:-0.046875 13:-0.03125 14:-0.023438 15:-0.015625 16:-0.023438 17:0.007812 18:0 19:0.121974 20:0 21:0 22:-0.007812 23:-0.007812 24:0.039062 25:0.039062 26:0.023438 27:-0.007812 28:0.180386 29:-0.007812 30:-0.007812 31:-0.007812 32:0.023438 33:0.109375 34:0.078125 35:0.039062 36:0 37:0.23845 38:-0.015625 39:-0.046875 40:0 41:0.007812 42:-0.140625 43:-0.039062 44:0 45:0 46:0.297597 47:0.015625 48:0.023438 49:0.007812 50:0.0625 51:0.320312 52:0.125 53:0.007812 54:0 55:0.356604 56:-0.007812 57:0 58:-0.007812 59:-0.054688 60:-0.023438 61:0.015625 62:-0.023438 63:-0.015625 64:0.414499 65:-0.007812 66:-0.007812 67:-0.015625 68:-0.015625 69:-0.1875 70:-0.109375 71:-0.015625 72:-0.007812 73:0.472952 74:0 75:0 76:0.007812 77:0.023438 78:0.101562 79:0.023438 80:0.007812 81:-0.007812 82:0.53114 83:-0.023438 84:0.054688 85:-0.03125 86:-0.03125 87:-0.007812 88:0.070312 89:-0.046875 90:-0.015625 91:0.589213 92:-0.007812 93:-0.007812 94:-0.015625 95:-0.015625 96:0.242188 97:0.085938 98:0 99:-0.007812 100:0.647324 101:-0.007812 102:0 103:-0.03125 104:-0.039062 105:-0.085938 106:0.164062 107:0.015625 108:-0.015625 109:0.706003 110:-0.054688 111:-0.070312 112:0.007812 113:-0.03125 114:-0.039062 115:-0.054688 116:-0.03125 117:-0.007812 118:0.765029 119:-0.023438 120:0 121:-0.007812 122:0.007812 123:0.039062 124:0.023438 125:0.007812 126:-0.007812 127:0.824596 128:0.007812 129:-0.007812 130:-0.023438 131:-0.015625 132:0.210938 133:-0.117188 134:-0.015625 135:-0.007812 136:0.883583 137:-0.023438 138:-0.078125 139:-0.007812 140:-0.023438 141:0.015625 142:-0.109375 143:-0.015625 144:-0.007812 145:0.941944 146:-0.015625 147:-0.007812 148:-0.007812 149:0.085938 150:-0.125 151:0.039062 152:0.015625 153:-0.007812 154:1 155:0 156:0.007812 157:0.007812 158:0 159:-0.1875 160:-0.015625 161:0.007812 162:-0.007812 
